digraph Tree {
node [shape=box, fontname="helvetica"] ;
edge [fontname="helvetica"] ;
0 [label="OverTime <= 0.5\nsquared_error = 0.135\nsamples = 1470\nvalue = 0.161"] ;
1 [label="TotalWorkingYears <= 2.5\nsquared_error = 0.093\nsamples = 1054\nvalue = 0.104"] ;
0 -> 1 [labeldistance=2.5, labelangle=45, headlabel="True"] ;
2 [label="JobRole <= 1.5\nsquared_error = 0.221\nsamples = 88\nvalue = 0.33"] ;
1 -> 2 ;
3 [label="EducationField <= 3.5\nsquared_error = 0.066\nsamples = 28\nvalue = 0.071"] ;
2 -> 3 ;
4 [label="WorkLifeBalance <= 3.5\nsquared_error = 0.036\nsamples = 27\nvalue = 0.037"] ;
3 -> 4 ;
5 [label="squared_error = 0.0\nsamples = 25\nvalue = 0.0"] ;
4 -> 5 ;
6 [label="TrainingTimesLastYear <= 1.5\nsquared_error = 0.25\nsamples = 2\nvalue = 0.5"] ;
4 -> 6 ;
7 [label="squared_error = 0.0\nsamples = 1\nvalue = 0.0"] ;
6 -> 7 ;
8 [label="squared_error = 0.0\nsamples = 1\nvalue = 1.0"] ;
6 -> 8 ;
9 [label="squared_error = 0.0\nsamples = 1\nvalue = 1.0"] ;
3 -> 9 ;
10 [label="HourlyRate <= 58.5\nsquared_error = 0.248\nsamples = 60\nvalue = 0.45"] ;
2 -> 10 ;
11 [label="EnvironmentSatisfaction <= 2.5\nsquared_error = 0.218\nsamples = 25\nvalue = 0.68"] ;
10 -> 11 ;
12 [label="squared_error = 0.0\nsamples = 11\nvalue = 1.0"] ;
11 -> 12 ;
13 [label="MonthlyIncome <= 2156.5\nsquared_error = 0.245\nsamples = 14\nvalue = 0.429"] ;
11 -> 13 ;
14 [label="StockOptionLevel <= 1.5\nsquared_error = 0.122\nsamples = 7\nvalue = 0.857"] ;
13 -> 14 ;
15 [label="squared_error = 0.0\nsamples = 6\nvalue = 1.0"] ;
14 -> 15 ;
16 [label="squared_error = 0.0\nsamples = 1\nvalue = 0.0"] ;
14 -> 16 ;
17 [label="squared_error = 0.0\nsamples = 7\nvalue = 0.0"] ;
13 -> 17 ;
18 [label="Education <= 3.5\nsquared_error = 0.204\nsamples = 35\nvalue = 0.286"] ;
10 -> 18 ;
19 [label="TrainingTimesLastYear <= 1.0\nsquared_error = 0.171\nsamples = 32\nvalue = 0.219"] ;
18 -> 19 ;
20 [label="squared_error = 0.0\nsamples = 2\nvalue = 1.0"] ;
19 -> 20 ;
21 [label="JobSatisfaction <= 1.5\nsquared_error = 0.139\nsamples = 30\nvalue = 0.167"] ;
19 -> 21 ;
22 [label="HourlyRate <= 80.0\nsquared_error = 0.222\nsamples = 3\nvalue = 0.667"] ;
21 -> 22 ;
23 [label="squared_error = 0.0\nsamples = 1\nvalue = 0.0"] ;
22 -> 23 ;
24 [label="squared_error = 0.0\nsamples = 2\nvalue = 1.0"] ;
22 -> 24 ;
25 [label="WorkLifeBalance <= 2.5\nsquared_error = 0.099\nsamples = 27\nvalue = 0.111"] ;
21 -> 25 ;
26 [label="DistanceFromHome <= 8.0\nsquared_error = 0.245\nsamples = 7\nvalue = 0.429"] ;
25 -> 26 ;
27 [label="squared_error = 0.0\nsamples = 4\nvalue = 0.0"] ;
26 -> 27 ;
28 [label="squared_error = 0.0\nsamples = 3\nvalue = 1.0"] ;
26 -> 28 ;
29 [label="squared_error = 0.0\nsamples = 20\nvalue = 0.0"] ;
25 -> 29 ;
30 [label="squared_error = 0.0\nsamples = 3\nvalue = 1.0"] ;
18 -> 30 ;
31 [label="WorkLifeBalance <= 1.5\nsquared_error = 0.077\nsamples = 966\nvalue = 0.084"] ;
1 -> 31 ;
32 [label="YearsWithCurrManager <= 0.5\nsquared_error = 0.185\nsamples = 53\nvalue = 0.245"] ;
31 -> 32 ;
33 [label="Age <= 44.0\nsquared_error = 0.204\nsamples = 7\nvalue = 0.714"] ;
32 -> 33 ;
34 [label="squared_error = 0.0\nsamples = 5\nvalue = 1.0"] ;
33 -> 34 ;
35 [label="squared_error = 0.0\nsamples = 2\nvalue = 0.0"] ;
33 -> 35 ;
36 [label="YearsSinceLastPromotion <= 6.0\nsquared_error = 0.144\nsamples = 46\nvalue = 0.174"] ;
32 -> 36 ;
37 [label="JobSatisfaction <= 1.5\nsquared_error = 0.09\nsamples = 40\nvalue = 0.1"] ;
36 -> 37 ;
38 [label="DailyRate <= 438.0\nsquared_error = 0.222\nsamples = 12\nvalue = 0.333"] ;
37 -> 38 ;
39 [label="NumCompaniesWorked <= 7.5\nsquared_error = 0.188\nsamples = 4\nvalue = 0.75"] ;
38 -> 39 ;
40 [label="squared_error = 0.0\nsamples = 3\nvalue = 1.0"] ;
39 -> 40 ;
41 [label="squared_error = 0.0\nsamples = 1\nvalue = 0.0"] ;
39 -> 41 ;
42 [label="DailyRate <= 1303.5\nsquared_error = 0.109\nsamples = 8\nvalue = 0.125"] ;
38 -> 42 ;
43 [label="squared_error = 0.0\nsamples = 7\nvalue = 0.0"] ;
42 -> 43 ;
44 [label="squared_error = 0.0\nsamples = 1\nvalue = 1.0"] ;
42 -> 44 ;
45 [label="squared_error = 0.0\nsamples = 28\nvalue = 0.0"] ;
37 -> 45 ;
46 [label="JobSatisfaction <= 2.5\nsquared_error = 0.222\nsamples = 6\nvalue = 0.667"] ;
36 -> 46 ;
47 [label="squared_error = 0.0\nsamples = 2\nvalue = 0.0"] ;
46 -> 47 ;
48 [label="squared_error = 0.0\nsamples = 4\nvalue = 1.0"] ;
46 -> 48 ;
49 [label="TotalWorkingYears <= 39.0\nsquared_error = 0.069\nsamples = 913\nvalue = 0.074"] ;
31 -> 49 ;
50 [label="NumCompaniesWorked <= 4.5\nsquared_error = 0.068\nsamples = 912\nvalue = 0.073"] ;
49 -> 50 ;
51 [label="YearsSinceLastPromotion <= 14.5\nsquared_error = 0.054\nsamples = 702\nvalue = 0.057"] ;
50 -> 51 ;
52 [label="YearsAtCompany <= 31.5\nsquared_error = 0.052\nsamples = 697\nvalue = 0.055"] ;
51 -> 52 ;
53 [label="RelationshipSatisfaction <= 1.5\nsquared_error = 0.049\nsamples = 690\nvalue = 0.052"] ;
52 -> 53 ;
54 [label="DailyRate <= 114.0\nsquared_error = 0.088\nsamples = 144\nvalue = 0.097"] ;
53 -> 54 ;
55 [label="squared_error = 0.0\nsamples = 1\nvalue = 1.0"] ;
54 -> 55 ;
56 [label="Age <= 45.5\nsquared_error = 0.083\nsamples = 143\nvalue = 0.091"] ;
54 -> 56 ;
57 [label="HourlyRate <= 65.5\nsquared_error = 0.061\nsamples = 122\nvalue = 0.066"] ;
56 -> 57 ;
58 [label="squared_error = 0.0\nsamples = 64\nvalue = 0.0"] ;
57 -> 58 ;
59 [label="MonthlyIncome <= 7443.5\nsquared_error = 0.119\nsamples = 58\nvalue = 0.138"] ;
57 -> 59 ;
60 [label="Age <= 37.5\nsquared_error = 0.076\nsamples = 48\nvalue = 0.083"] ;
59 -> 60 ;
61 [label="JobRole <= 5.5\nsquared_error = 0.048\nsamples = 40\nvalue = 0.05"] ;
60 -> 61 ;
62 [label="MonthlyRate <= 22717.0\nsquared_error = 0.026\nsamples = 37\nvalue = 0.027"] ;
61 -> 62 ;
63 [label="squared_error = 0.0\nsamples = 32\nvalue = 0.0"] ;
62 -> 63 ;
64 [label="Education <= 2.5\nsquared_error = 0.16\nsamples = 5\nvalue = 0.2"] ;
62 -> 64 ;
65 [label="squared_error = 0.0\nsamples = 1\nvalue = 1.0"] ;
64 -> 65 ;
66 [label="squared_error = 0.0\nsamples = 4\nvalue = 0.0"] ;
64 -> 66 ;
67 [label="JobSatisfaction <= 2.0\nsquared_error = 0.222\nsamples = 3\nvalue = 0.333"] ;
61 -> 67 ;
68 [label="squared_error = 0.0\nsamples = 1\nvalue = 1.0"] ;
67 -> 68 ;
69 [label="squared_error = 0.0\nsamples = 2\nvalue = 0.0"] ;
67 -> 69 ;
70 [label="YearsInCurrentRole <= 2.5\nsquared_error = 0.188\nsamples = 8\nvalue = 0.25"] ;
60 -> 70 ;
71 [label="squared_error = 0.0\nsamples = 2\nvalue = 1.0"] ;
70 -> 71 ;
72 [label="squared_error = 0.0\nsamples = 6\nvalue = 0.0"] ;
70 -> 72 ;
73 [label="Age <= 33.0\nsquared_error = 0.24\nsamples = 10\nvalue = 0.4"] ;
59 -> 73 ;
74 [label="squared_error = 0.0\nsamples = 4\nvalue = 1.0"] ;
73 -> 74 ;
75 [label="squared_error = 0.0\nsamples = 6\nvalue = 0.0"] ;
73 -> 75 ;
76 [label="WorkLifeBalance <= 3.5\nsquared_error = 0.181\nsamples = 21\nvalue = 0.238"] ;
56 -> 76 ;
77 [label="StockOptionLevel <= 0.5\nsquared_error = 0.133\nsamples = 19\nvalue = 0.158"] ;
76 -> 77 ;
78 [label="JobRole <= 2.5\nsquared_error = 0.245\nsamples = 7\nvalue = 0.429"] ;
77 -> 78 ;
79 [label="squared_error = 0.0\nsamples = 3\nvalue = 1.0"] ;
78 -> 79 ;
80 [label="squared_error = 0.0\nsamples = 4\nvalue = 0.0"] ;
78 -> 80 ;
81 [label="squared_error = 0.0\nsamples = 12\nvalue = 0.0"] ;
77 -> 81 ;
82 [label="squared_error = 0.0\nsamples = 2\nvalue = 1.0"] ;
76 -> 82 ;
83 [label="DailyRate <= 1495.5\nsquared_error = 0.039\nsamples = 546\nvalue = 0.04"] ;
53 -> 83 ;
84 [label="DailyRate <= 308.0\nsquared_error = 0.037\nsamples = 544\nvalue = 0.039"] ;
83 -> 84 ;
85 [label="DailyRate <= 305.5\nsquared_error = 0.079\nsamples = 81\nvalue = 0.086"] ;
84 -> 85 ;
86 [label="PercentSalaryHike <= 15.5\nsquared_error = 0.059\nsamples = 79\nvalue = 0.063"] ;
85 -> 86 ;
87 [label="squared_error = 0.0\nsamples = 53\nvalue = 0.0"] ;
86 -> 87 ;
88 [label="DailyRate <= 145.5\nsquared_error = 0.155\nsamples = 26\nvalue = 0.192"] ;
86 -> 88 ;
89 [label="squared_error = 0.0\nsamples = 2\nvalue = 1.0"] ;
88 -> 89 ;
90 [label="TotalWorkingYears <= 3.5\nsquared_error = 0.109\nsamples = 24\nvalue = 0.125"] ;
88 -> 90 ;
91 [label="squared_error = 0.0\nsamples = 1\nvalue = 1.0"] ;
90 -> 91 ;
92 [label="NumCompaniesWorked <= 3.5\nsquared_error = 0.079\nsamples = 23\nvalue = 0.087"] ;
90 -> 92 ;
93 [label="squared_error = 0.0\nsamples = 19\nvalue = 0.0"] ;
92 -> 93 ;
94 [label="EnvironmentSatisfaction <= 3.5\nsquared_error = 0.25\nsamples = 4\nvalue = 0.5"] ;
92 -> 94 ;
95 [label="squared_error = 0.0\nsamples = 2\nvalue = 0.0"] ;
94 -> 95 ;
96 [label="squared_error = 0.0\nsamples = 2\nvalue = 1.0"] ;
94 -> 96 ;
97 [label="squared_error = 0.0\nsamples = 2\nvalue = 1.0"] ;
85 -> 97 ;
98 [label="Age <= 54.5\nsquared_error = 0.029\nsamples = 463\nvalue = 0.03"] ;
84 -> 98 ;
99 [label="PercentSalaryHike <= 11.5\nsquared_error = 0.026\nsamples = 451\nvalue = 0.027"] ;
98 -> 99 ;
100 [label="HourlyRate <= 35.0\nsquared_error = 0.07\nsamples = 66\nvalue = 0.076"] ;
99 -> 100 ;
101 [label="squared_error = 0.0\nsamples = 1\nvalue = 1.0"] ;
100 -> 101 ;
102 [label="JobSatisfaction <= 1.5\nsquared_error = 0.058\nsamples = 65\nvalue = 0.062"] ;
100 -> 102 ;
103 [label="Education <= 1.5\nsquared_error = 0.178\nsamples = 13\nvalue = 0.231"] ;
102 -> 103 ;
104 [label="Age <= 34.5\nsquared_error = 0.222\nsamples = 3\nvalue = 0.667"] ;
103 -> 104 ;
105 [label="squared_error = 0.0\nsamples = 2\nvalue = 1.0"] ;
104 -> 105 ;
106 [label="squared_error = 0.0\nsamples = 1\nvalue = 0.0"] ;
104 -> 106 ;
107 [label="JobInvolvement <= 2.5\nsquared_error = 0.09\nsamples = 10\nvalue = 0.1"] ;
103 -> 107 ;
108 [label="TrainingTimesLastYear <= 2.0\nsquared_error = 0.25\nsamples = 2\nvalue = 0.5"] ;
107 -> 108 ;
109 [label="squared_error = 0.0\nsamples = 1\nvalue = 0.0"] ;
108 -> 109 ;
110 [label="squared_error = 0.0\nsamples = 1\nvalue = 1.0"] ;
108 -> 110 ;
111 [label="squared_error = 0.0\nsamples = 8\nvalue = 0.0"] ;
107 -> 111 ;
112 [label="DistanceFromHome <= 14.5\nsquared_error = 0.019\nsamples = 52\nvalue = 0.019"] ;
102 -> 112 ;
113 [label="squared_error = 0.0\nsamples = 41\nvalue = 0.0"] ;
112 -> 113 ;
114 [label="DistanceFromHome <= 16.0\nsquared_error = 0.083\nsamples = 11\nvalue = 0.091"] ;
112 -> 114 ;
115 [label="squared_error = 0.0\nsamples = 1\nvalue = 1.0"] ;
114 -> 115 ;
116 [label="squared_error = 0.0\nsamples = 10\nvalue = 0.0"] ;
114 -> 116 ;
117 [label="MonthlyIncome <= 2087.0\nsquared_error = 0.018\nsamples = 385\nvalue = 0.018"] ;
99 -> 117 ;
118 [label="YearsInCurrentRole <= 1.0\nsquared_error = 0.139\nsamples = 12\nvalue = 0.167"] ;
117 -> 118 ;
119 [label="squared_error = 0.0\nsamples = 1\nvalue = 1.0"] ;
118 -> 119 ;
120 [label="YearsWithCurrManager <= 4.5\nsquared_error = 0.083\nsamples = 11\nvalue = 0.091"] ;
118 -> 120 ;
121 [label="squared_error = 0.0\nsamples = 9\nvalue = 0.0"] ;
120 -> 121 ;
122 [label="DistanceFromHome <= 1.5\nsquared_error = 0.25\nsamples = 2\nvalue = 0.5"] ;
120 -> 122 ;
123 [label="squared_error = 0.0\nsamples = 1\nvalue = 1.0"] ;
122 -> 123 ;
124 [label="squared_error = 0.0\nsamples = 1\nvalue = 0.0"] ;
122 -> 124 ;
125 [label="DistanceFromHome <= 28.5\nsquared_error = 0.013\nsamples = 373\nvalue = 0.013"] ;
117 -> 125 ;
126 [label="Age <= 43.5\nsquared_error = 0.011\nsamples = 367\nvalue = 0.011"] ;
125 -> 126 ;
127 [label="PercentSalaryHike <= 21.5\nsquared_error = 0.003\nsamples = 301\nvalue = 0.003"] ;
126 -> 127 ;
128 [label="squared_error = 0.0\nsamples = 272\nvalue = 0.0"] ;
127 -> 128 ;
129 [label="EducationField <= 2.0\nsquared_error = 0.033\nsamples = 29\nvalue = 0.034"] ;
127 -> 129 ;
130 [label="squared_error = 0.0\nsamples = 25\nvalue = 0.0"] ;
129 -> 130 ;
131 [label="JobSatisfaction <= 2.0\nsquared_error = 0.188\nsamples = 4\nvalue = 0.25"] ;
129 -> 131 ;
132 [label="squared_error = 0.0\nsamples = 1\nvalue = 1.0"] ;
131 -> 132 ;
133 [label="squared_error = 0.0\nsamples = 3\nvalue = 0.0"] ;
131 -> 133 ;
134 [label="JobInvolvement <= 1.5\nsquared_error = 0.043\nsamples = 66\nvalue = 0.045"] ;
126 -> 134 ;
135 [label="Education <= 3.5\nsquared_error = 0.25\nsamples = 2\nvalue = 0.5"] ;
134 -> 135 ;
136 [label="squared_error = 0.0\nsamples = 1\nvalue = 0.0"] ;
135 -> 136 ;
137 [label="squared_error = 0.0\nsamples = 1\nvalue = 1.0"] ;
135 -> 137 ;
138 [label="MonthlyIncome <= 2371.0\nsquared_error = 0.03\nsamples = 64\nvalue = 0.031"] ;
134 -> 138 ;
139 [label="Age <= 44.5\nsquared_error = 0.222\nsamples = 3\nvalue = 0.333"] ;
138 -> 139 ;
140 [label="squared_error = 0.0\nsamples = 1\nvalue = 1.0"] ;
139 -> 140 ;
141 [label="squared_error = 0.0\nsamples = 2\nvalue = 0.0"] ;
139 -> 141 ;
142 [label="NumCompaniesWorked <= 1.5\nsquared_error = 0.016\nsamples = 61\nvalue = 0.016"] ;
138 -> 142 ;
143 [label="JobLevel <= 2.5\nsquared_error = 0.09\nsamples = 10\nvalue = 0.1"] ;
142 -> 143 ;
144 [label="squared_error = 0.0\nsamples = 8\nvalue = 0.0"] ;
143 -> 144 ;
145 [label="StockOptionLevel <= 1.0\nsquared_error = 0.25\nsamples = 2\nvalue = 0.5"] ;
143 -> 145 ;
146 [label="squared_error = 0.0\nsamples = 1\nvalue = 1.0"] ;
145 -> 146 ;
147 [label="squared_error = 0.0\nsamples = 1\nvalue = 0.0"] ;
145 -> 147 ;
148 [label="squared_error = 0.0\nsamples = 51\nvalue = 0.0"] ;
142 -> 148 ;
149 [label="PercentSalaryHike <= 18.5\nsquared_error = 0.139\nsamples = 6\nvalue = 0.167"] ;
125 -> 149 ;
150 [label="squared_error = 0.0\nsamples = 5\nvalue = 0.0"] ;
149 -> 150 ;
151 [label="squared_error = 0.0\nsamples = 1\nvalue = 1.0"] ;
149 -> 151 ;
152 [label="MaritalStatus <= 0.5\nsquared_error = 0.139\nsamples = 12\nvalue = 0.167"] ;
98 -> 152 ;
153 [label="Education <= 3.5\nsquared_error = 0.222\nsamples = 3\nvalue = 0.667"] ;
152 -> 153 ;
154 [label="squared_error = 0.0\nsamples = 2\nvalue = 1.0"] ;
153 -> 154 ;
155 [label="squared_error = 0.0\nsamples = 1\nvalue = 0.0"] ;
153 -> 155 ;
156 [label="squared_error = 0.0\nsamples = 9\nvalue = 0.0"] ;
152 -> 156 ;
157 [label="MonthlyRate <= 9296.0\nsquared_error = 0.25\nsamples = 2\nvalue = 0.5"] ;
83 -> 157 ;
158 [label="squared_error = 0.0\nsamples = 1\nvalue = 0.0"] ;
157 -> 158 ;
159 [label="squared_error = 0.0\nsamples = 1\nvalue = 1.0"] ;
157 -> 159 ;
160 [label="DailyRate <= 614.0\nsquared_error = 0.204\nsamples = 7\nvalue = 0.286"] ;
52 -> 160 ;
161 [label="squared_error = 0.0\nsamples = 2\nvalue = 1.0"] ;
160 -> 161 ;
162 [label="squared_error = 0.0\nsamples = 5\nvalue = 0.0"] ;
160 -> 162 ;
163 [label="TrainingTimesLastYear <= 1.5\nsquared_error = 0.24\nsamples = 5\nvalue = 0.4"] ;
51 -> 163 ;
164 [label="squared_error = 0.0\nsamples = 2\nvalue = 1.0"] ;
163 -> 164 ;
165 [label="squared_error = 0.0\nsamples = 3\nvalue = 0.0"] ;
163 -> 165 ;
166 [label="Age <= 33.5\nsquared_error = 0.112\nsamples = 210\nvalue = 0.129"] ;
50 -> 166 ;
167 [label="HourlyRate <= 41.5\nsquared_error = 0.208\nsamples = 61\nvalue = 0.295"] ;
166 -> 167 ;
168 [label="NumCompaniesWorked <= 8.0\nsquared_error = 0.21\nsamples = 10\nvalue = 0.7"] ;
167 -> 168 ;
169 [label="Education <= 3.5\nsquared_error = 0.109\nsamples = 8\nvalue = 0.875"] ;
168 -> 169 ;
170 [label="squared_error = 0.0\nsamples = 7\nvalue = 1.0"] ;
169 -> 170 ;
171 [label="squared_error = 0.0\nsamples = 1\nvalue = 0.0"] ;
169 -> 171 ;
172 [label="squared_error = 0.0\nsamples = 2\nvalue = 0.0"] ;
168 -> 172 ;
173 [label="TotalWorkingYears <= 7.5\nsquared_error = 0.169\nsamples = 51\nvalue = 0.216"] ;
167 -> 173 ;
174 [label="PercentSalaryHike <= 18.5\nsquared_error = 0.246\nsamples = 23\nvalue = 0.435"] ;
173 -> 174 ;
175 [label="JobInvolvement <= 2.5\nsquared_error = 0.249\nsamples = 19\nvalue = 0.526"] ;
174 -> 175 ;
176 [label="squared_error = 0.0\nsamples = 5\nvalue = 1.0"] ;
175 -> 176 ;
177 [label="MonthlyIncome <= 4004.5\nsquared_error = 0.23\nsamples = 14\nvalue = 0.357"] ;
175 -> 177 ;
178 [label="squared_error = 0.0\nsamples = 7\nvalue = 0.0"] ;
177 -> 178 ;
179 [label="YearsInCurrentRole <= 1.5\nsquared_error = 0.204\nsamples = 7\nvalue = 0.714"] ;
177 -> 179 ;
180 [label="squared_error = 0.0\nsamples = 2\nvalue = 0.0"] ;
179 -> 180 ;
181 [label="squared_error = 0.0\nsamples = 5\nvalue = 1.0"] ;
179 -> 181 ;
182 [label="squared_error = 0.0\nsamples = 4\nvalue = 0.0"] ;
174 -> 182 ;
183 [label="DailyRate <= 401.5\nsquared_error = 0.034\nsamples = 28\nvalue = 0.036"] ;
173 -> 183 ;
184 [label="YearsSinceLastPromotion <= 1.0\nsquared_error = 0.222\nsamples = 3\nvalue = 0.333"] ;
183 -> 184 ;
185 [label="squared_error = 0.0\nsamples = 1\nvalue = 1.0"] ;
184 -> 185 ;
186 [label="squared_error = 0.0\nsamples = 2\nvalue = 0.0"] ;
184 -> 186 ;
187 [label="squared_error = 0.0\nsamples = 25\nvalue = 0.0"] ;
183 -> 187 ;
188 [label="EnvironmentSatisfaction <= 1.5\nsquared_error = 0.057\nsamples = 149\nvalue = 0.06"] ;
166 -> 188 ;
189 [label="MaritalStatus <= 1.5\nsquared_error = 0.134\nsamples = 25\nvalue = 0.16"] ;
188 -> 189 ;
190 [label="TotalWorkingYears <= 7.5\nsquared_error = 0.052\nsamples = 18\nvalue = 0.056"] ;
189 -> 190 ;
191 [label="squared_error = 0.0\nsamples = 1\nvalue = 1.0"] ;
190 -> 191 ;
192 [label="squared_error = 0.0\nsamples = 17\nvalue = 0.0"] ;
190 -> 192 ;
193 [label="DailyRate <= 791.0\nsquared_error = 0.245\nsamples = 7\nvalue = 0.429"] ;
189 -> 193 ;
194 [label="squared_error = 0.0\nsamples = 3\nvalue = 1.0"] ;
193 -> 194 ;
195 [label="squared_error = 0.0\nsamples = 4\nvalue = 0.0"] ;
193 -> 195 ;
196 [label="Department <= 0.5\nsquared_error = 0.039\nsamples = 124\nvalue = 0.04"] ;
188 -> 196 ;
197 [label="squared_error = 0.0\nsamples = 76\nvalue = 0.0"] ;
196 -> 197 ;
198 [label="PercentSalaryHike <= 20.5\nsquared_error = 0.093\nsamples = 48\nvalue = 0.104"] ;
196 -> 198 ;
199 [label="NumCompaniesWorked <= 8.5\nsquared_error = 0.065\nsamples = 43\nvalue = 0.07"] ;
198 -> 199 ;
200 [label="HourlyRate <= 93.5\nsquared_error = 0.026\nsamples = 38\nvalue = 0.026"] ;
199 -> 200 ;
201 [label="squared_error = 0.0\nsamples = 34\nvalue = 0.0"] ;
200 -> 201 ;
202 [label="PercentSalaryHike <= 13.0\nsquared_error = 0.188\nsamples = 4\nvalue = 0.25"] ;
200 -> 202 ;
203 [label="squared_error = 0.0\nsamples = 1\nvalue = 1.0"] ;
202 -> 203 ;
204 [label="squared_error = 0.0\nsamples = 3\nvalue = 0.0"] ;
202 -> 204 ;
205 [label="YearsAtCompany <= 12.0\nsquared_error = 0.24\nsamples = 5\nvalue = 0.4"] ;
199 -> 205 ;
206 [label="squared_error = 0.0\nsamples = 3\nvalue = 0.0"] ;
205 -> 206 ;
207 [label="squared_error = 0.0\nsamples = 2\nvalue = 1.0"] ;
205 -> 207 ;
208 [label="MonthlyRate <= 17966.5\nsquared_error = 0.24\nsamples = 5\nvalue = 0.4"] ;
198 -> 208 ;
209 [label="squared_error = 0.0\nsamples = 2\nvalue = 1.0"] ;
208 -> 209 ;
210 [label="squared_error = 0.0\nsamples = 3\nvalue = 0.0"] ;
208 -> 210 ;
211 [label="squared_error = 0.0\nsamples = 1\nvalue = 1.0"] ;
49 -> 211 ;
212 [label="MonthlyIncome <= 2475.0\nsquared_error = 0.212\nsamples = 416\nvalue = 0.305"] ;
0 -> 212 [labeldistance=2.5, labelangle=-45, headlabel="False"] ;
213 [label="DailyRate <= 931.0\nsquared_error = 0.212\nsamples = 69\nvalue = 0.696"] ;
212 -> 213 ;
214 [label="Age <= 36.0\nsquared_error = 0.107\nsamples = 41\nvalue = 0.878"] ;
213 -> 214 ;
215 [label="TrainingTimesLastYear <= 5.5\nsquared_error = 0.055\nsamples = 34\nvalue = 0.941"] ;
214 -> 215 ;
216 [label="Education <= 3.5\nsquared_error = 0.029\nsamples = 33\nvalue = 0.97"] ;
215 -> 216 ;
217 [label="squared_error = 0.0\nsamples = 29\nvalue = 1.0"] ;
216 -> 217 ;
218 [label="DistanceFromHome <= 4.5\nsquared_error = 0.188\nsamples = 4\nvalue = 0.75"] ;
216 -> 218 ;
219 [label="squared_error = 0.0\nsamples = 1\nvalue = 0.0"] ;
218 -> 219 ;
220 [label="squared_error = 0.0\nsamples = 3\nvalue = 1.0"] ;
218 -> 220 ;
221 [label="squared_error = 0.0\nsamples = 1\nvalue = 0.0"] ;
215 -> 221 ;
222 [label="MaritalStatus <= 1.5\nsquared_error = 0.245\nsamples = 7\nvalue = 0.571"] ;
214 -> 222 ;
223 [label="Age <= 42.5\nsquared_error = 0.188\nsamples = 4\nvalue = 0.25"] ;
222 -> 223 ;
224 [label="squared_error = 0.0\nsamples = 3\nvalue = 0.0"] ;
223 -> 224 ;
225 [label="squared_error = 0.0\nsamples = 1\nvalue = 1.0"] ;
223 -> 225 ;
226 [label="squared_error = 0.0\nsamples = 3\nvalue = 1.0"] ;
222 -> 226 ;
227 [label="YearsInCurrentRole <= 2.5\nsquared_error = 0.245\nsamples = 28\nvalue = 0.429"] ;
213 -> 227 ;
228 [label="JobSatisfaction <= 3.5\nsquared_error = 0.222\nsamples = 18\nvalue = 0.667"] ;
227 -> 228 ;
229 [label="JobInvolvement <= 3.5\nsquared_error = 0.188\nsamples = 16\nvalue = 0.75"] ;
228 -> 229 ;
230 [label="MonthlyRate <= 17204.5\nsquared_error = 0.13\nsamples = 13\nvalue = 0.846"] ;
229 -> 230 ;
231 [label="squared_error = 0.0\nsamples = 10\nvalue = 1.0"] ;
230 -> 231 ;
232 [label="MonthlyRate <= 26162.5\nsquared_error = 0.222\nsamples = 3\nvalue = 0.333"] ;
230 -> 232 ;
233 [label="squared_error = 0.0\nsamples = 2\nvalue = 0.0"] ;
232 -> 233 ;
234 [label="squared_error = 0.0\nsamples = 1\nvalue = 1.0"] ;
232 -> 234 ;
235 [label="YearsAtCompany <= 2.0\nsquared_error = 0.222\nsamples = 3\nvalue = 0.333"] ;
229 -> 235 ;
236 [label="squared_error = 0.0\nsamples = 1\nvalue = 1.0"] ;
235 -> 236 ;
237 [label="squared_error = 0.0\nsamples = 2\nvalue = 0.0"] ;
235 -> 237 ;
238 [label="squared_error = 0.0\nsamples = 2\nvalue = 0.0"] ;
228 -> 238 ;
239 [label="squared_error = 0.0\nsamples = 10\nvalue = 0.0"] ;
227 -> 239 ;
240 [label="MaritalStatus <= 0.5\nsquared_error = 0.176\nsamples = 347\nvalue = 0.228"] ;
212 -> 240 ;
241 [label="JobRole <= 2.5\nsquared_error = 0.241\nsamples = 101\nvalue = 0.406"] ;
240 -> 241 ;
242 [label="YearsSinceLastPromotion <= 2.5\nsquared_error = 0.249\nsamples = 65\nvalue = 0.538"] ;
241 -> 242 ;
243 [label="YearsAtCompany <= 7.0\nsquared_error = 0.247\nsamples = 54\nvalue = 0.444"] ;
242 -> 243 ;
244 [label="HourlyRate <= 45.5\nsquared_error = 0.246\nsamples = 41\nvalue = 0.561"] ;
243 -> 244 ;
245 [label="squared_error = 0.0\nsamples = 6\nvalue = 0.0"] ;
244 -> 245 ;
246 [label="YearsWithCurrManager <= 0.5\nsquared_error = 0.225\nsamples = 35\nvalue = 0.657"] ;
244 -> 246 ;
247 [label="squared_error = 0.0\nsamples = 9\nvalue = 1.0"] ;
246 -> 247 ;
248 [label="NumCompaniesWorked <= 4.5\nsquared_error = 0.249\nsamples = 26\nvalue = 0.538"] ;
246 -> 248 ;
249 [label="JobRole <= 1.5\nsquared_error = 0.245\nsamples = 21\nvalue = 0.429"] ;
248 -> 249 ;
250 [label="MonthlyRate <= 23184.0\nsquared_error = 0.208\nsamples = 17\nvalue = 0.294"] ;
249 -> 250 ;
251 [label="Age <= 43.0\nsquared_error = 0.16\nsamples = 15\nvalue = 0.2"] ;
250 -> 251 ;
252 [label="PercentSalaryHike <= 16.5\nsquared_error = 0.071\nsamples = 13\nvalue = 0.077"] ;
251 -> 252 ;
253 [label="squared_error = 0.0\nsamples = 12\nvalue = 0.0"] ;
252 -> 253 ;
254 [label="squared_error = 0.0\nsamples = 1\nvalue = 1.0"] ;
252 -> 254 ;
255 [label="squared_error = 0.0\nsamples = 2\nvalue = 1.0"] ;
251 -> 255 ;
256 [label="squared_error = 0.0\nsamples = 2\nvalue = 1.0"] ;
250 -> 256 ;
257 [label="squared_error = 0.0\nsamples = 4\nvalue = 1.0"] ;
249 -> 257 ;
258 [label="squared_error = 0.0\nsamples = 5\nvalue = 1.0"] ;
248 -> 258 ;
259 [label="PercentSalaryHike <= 23.0\nsquared_error = 0.071\nsamples = 13\nvalue = 0.077"] ;
243 -> 259 ;
260 [label="squared_error = 0.0\nsamples = 12\nvalue = 0.0"] ;
259 -> 260 ;
261 [label="squared_error = 0.0\nsamples = 1\nvalue = 1.0"] ;
259 -> 261 ;
262 [label="squared_error = 0.0\nsamples = 11\nvalue = 1.0"] ;
242 -> 262 ;
263 [label="EducationField <= 1.5\nsquared_error = 0.139\nsamples = 36\nvalue = 0.167"] ;
241 -> 263 ;
264 [label="MonthlyIncome <= 19157.0\nsquared_error = 0.034\nsamples = 28\nvalue = 0.036"] ;
263 -> 264 ;
265 [label="squared_error = 0.0\nsamples = 27\nvalue = 0.0"] ;
264 -> 265 ;
266 [label="squared_error = 0.0\nsamples = 1\nvalue = 1.0"] ;
264 -> 266 ;
267 [label="TotalWorkingYears <= 9.5\nsquared_error = 0.234\nsamples = 8\nvalue = 0.625"] ;
263 -> 267 ;
268 [label="squared_error = 0.0\nsamples = 4\nvalue = 1.0"] ;
267 -> 268 ;
269 [label="TotalWorkingYears <= 25.5\nsquared_error = 0.188\nsamples = 4\nvalue = 0.25"] ;
267 -> 269 ;
270 [label="squared_error = 0.0\nsamples = 3\nvalue = 0.0"] ;
269 -> 270 ;
271 [label="squared_error = 0.0\nsamples = 1\nvalue = 1.0"] ;
269 -> 271 ;
272 [label="EnvironmentSatisfaction <= 2.5\nsquared_error = 0.131\nsamples = 246\nvalue = 0.154"] ;
240 -> 272 ;
273 [label="NumCompaniesWorked <= 4.5\nsquared_error = 0.199\nsamples = 80\nvalue = 0.275"] ;
272 -> 273 ;
274 [label="Age <= 31.5\nsquared_error = 0.152\nsamples = 64\nvalue = 0.188"] ;
273 -> 274 ;
275 [label="HourlyRate <= 77.5\nsquared_error = 0.238\nsamples = 18\nvalue = 0.389"] ;
274 -> 275 ;
276 [label="JobSatisfaction <= 2.5\nsquared_error = 0.21\nsamples = 10\nvalue = 0.7"] ;
275 -> 276 ;
277 [label="squared_error = 0.0\nsamples = 3\nvalue = 0.0"] ;
276 -> 277 ;
278 [label="squared_error = 0.0\nsamples = 7\nvalue = 1.0"] ;
276 -> 278 ;
279 [label="squared_error = 0.0\nsamples = 8\nvalue = 0.0"] ;
275 -> 279 ;
280 [label="MonthlyIncome <= 2798.0\nsquared_error = 0.097\nsamples = 46\nvalue = 0.109"] ;
274 -> 280 ;
281 [label="DistanceFromHome <= 6.0\nsquared_error = 0.222\nsamples = 3\nvalue = 0.667"] ;
280 -> 281 ;
282 [label="squared_error = 0.0\nsamples = 2\nvalue = 1.0"] ;
281 -> 282 ;
283 [label="squared_error = 0.0\nsamples = 1\nvalue = 0.0"] ;
281 -> 283 ;
284 [label="DistanceFromHome <= 22.0\nsquared_error = 0.065\nsamples = 43\nvalue = 0.07"] ;
280 -> 284 ;
285 [label="MonthlyRate <= 23214.5\nsquared_error = 0.026\nsamples = 37\nvalue = 0.027"] ;
284 -> 285 ;
286 [label="squared_error = 0.0\nsamples = 35\nvalue = 0.0"] ;
285 -> 286 ;
287 [label="JobRole <= 2.0\nsquared_error = 0.25\nsamples = 2\nvalue = 0.5"] ;
285 -> 287 ;
288 [label="squared_error = 0.0\nsamples = 1\nvalue = 1.0"] ;
287 -> 288 ;
289 [label="squared_error = 0.0\nsamples = 1\nvalue = 0.0"] ;
287 -> 289 ;
290 [label="MonthlyRate <= 19223.0\nsquared_error = 0.222\nsamples = 6\nvalue = 0.333"] ;
284 -> 290 ;
291 [label="NumCompaniesWorked <= 3.5\nsquared_error = 0.222\nsamples = 3\nvalue = 0.667"] ;
290 -> 291 ;
292 [label="squared_error = 0.0\nsamples = 2\nvalue = 1.0"] ;
291 -> 292 ;
293 [label="squared_error = 0.0\nsamples = 1\nvalue = 0.0"] ;
291 -> 293 ;
294 [label="squared_error = 0.0\nsamples = 3\nvalue = 0.0"] ;
290 -> 294 ;
295 [label="Age <= 35.5\nsquared_error = 0.234\nsamples = 16\nvalue = 0.625"] ;
273 -> 295 ;
296 [label="squared_error = 0.0\nsamples = 7\nvalue = 1.0"] ;
295 -> 296 ;
297 [label="RelationshipSatisfaction <= 2.5\nsquared_error = 0.222\nsamples = 9\nvalue = 0.333"] ;
295 -> 297 ;
298 [label="squared_error = 0.0\nsamples = 3\nvalue = 1.0"] ;
297 -> 298 ;
299 [label="squared_error = 0.0\nsamples = 6\nvalue = 0.0"] ;
297 -> 299 ;
300 [label="TotalWorkingYears <= 2.5\nsquared_error = 0.087\nsamples = 166\nvalue = 0.096"] ;
272 -> 300 ;
301 [label="YearsWithCurrManager <= 0.5\nsquared_error = 0.25\nsamples = 6\nvalue = 0.5"] ;
300 -> 301 ;
302 [label="HourlyRate <= 87.5\nsquared_error = 0.188\nsamples = 4\nvalue = 0.75"] ;
301 -> 302 ;
303 [label="squared_error = 0.0\nsamples = 3\nvalue = 1.0"] ;
302 -> 303 ;
304 [label="squared_error = 0.0\nsamples = 1\nvalue = 0.0"] ;
302 -> 304 ;
305 [label="squared_error = 0.0\nsamples = 2\nvalue = 0.0"] ;
301 -> 305 ;
306 [label="MonthlyIncome <= 19853.0\nsquared_error = 0.075\nsamples = 160\nvalue = 0.081"] ;
300 -> 306 ;
307 [label="TrainingTimesLastYear <= 5.5\nsquared_error = 0.07\nsamples = 159\nvalue = 0.075"] ;
306 -> 307 ;
308 [label="TrainingTimesLastYear <= 0.5\nsquared_error = 0.06\nsamples = 155\nvalue = 0.065"] ;
307 -> 308 ;
309 [label="HourlyRate <= 67.5\nsquared_error = 0.222\nsamples = 9\nvalue = 0.333"] ;
308 -> 309 ;
310 [label="squared_error = 0.0\nsamples = 3\nvalue = 1.0"] ;
309 -> 310 ;
311 [label="squared_error = 0.0\nsamples = 6\nvalue = 0.0"] ;
309 -> 311 ;
312 [label="MonthlyIncome <= 3779.0\nsquared_error = 0.046\nsamples = 146\nvalue = 0.048"] ;
308 -> 312 ;
313 [label="MonthlyIncome <= 3662.0\nsquared_error = 0.126\nsamples = 27\nvalue = 0.148"] ;
312 -> 313 ;
314 [label="BusinessTravel <= 1.5\nsquared_error = 0.074\nsamples = 25\nvalue = 0.08"] ;
313 -> 314 ;
315 [label="squared_error = 0.0\nsamples = 19\nvalue = 0.0"] ;
314 -> 315 ;
316 [label="Age <= 41.0\nsquared_error = 0.222\nsamples = 6\nvalue = 0.333"] ;
314 -> 316 ;
317 [label="squared_error = 0.0\nsamples = 4\nvalue = 0.0"] ;
316 -> 317 ;
318 [label="squared_error = 0.0\nsamples = 2\nvalue = 1.0"] ;
316 -> 318 ;
319 [label="squared_error = 0.0\nsamples = 2\nvalue = 1.0"] ;
313 -> 319 ;
320 [label="DistanceFromHome <= 27.0\nsquared_error = 0.025\nsamples = 119\nvalue = 0.025"] ;
312 -> 320 ;
321 [label="HourlyRate <= 97.0\nsquared_error = 0.017\nsamples = 115\nvalue = 0.017"] ;
320 -> 321 ;
322 [label="YearsAtCompany <= 1.5\nsquared_error = 0.009\nsamples = 111\nvalue = 0.009"] ;
321 -> 322 ;
323 [label="RelationshipSatisfaction <= 1.5\nsquared_error = 0.122\nsamples = 7\nvalue = 0.143"] ;
322 -> 323 ;
324 [label="squared_error = 0.0\nsamples = 1\nvalue = 1.0"] ;
323 -> 324 ;
325 [label="squared_error = 0.0\nsamples = 6\nvalue = 0.0"] ;
323 -> 325 ;
326 [label="squared_error = 0.0\nsamples = 104\nvalue = 0.0"] ;
322 -> 326 ;
327 [label="DistanceFromHome <= 16.0\nsquared_error = 0.188\nsamples = 4\nvalue = 0.25"] ;
321 -> 327 ;
328 [label="squared_error = 0.0\nsamples = 3\nvalue = 0.0"] ;
327 -> 328 ;
329 [label="squared_error = 0.0\nsamples = 1\nvalue = 1.0"] ;
327 -> 329 ;
330 [label="JobInvolvement <= 2.5\nsquared_error = 0.188\nsamples = 4\nvalue = 0.25"] ;
320 -> 330 ;
331 [label="squared_error = 0.0\nsamples = 1\nvalue = 1.0"] ;
330 -> 331 ;
332 [label="squared_error = 0.0\nsamples = 3\nvalue = 0.0"] ;
330 -> 332 ;
333 [label="RelationshipSatisfaction <= 1.5\nsquared_error = 0.25\nsamples = 4\nvalue = 0.5"] ;
307 -> 333 ;
334 [label="squared_error = 0.0\nsamples = 2\nvalue = 1.0"] ;
333 -> 334 ;
335 [label="squared_error = 0.0\nsamples = 2\nvalue = 0.0"] ;
333 -> 335 ;
336 [label="squared_error = 0.0\nsamples = 1\nvalue = 1.0"] ;
306 -> 336 ;
}